Language model created by QuickLM on Sun Jan 15 03:41:59 EST 2017
Copyright (c) 1996-2010 Carnegie Mellon University and Alexander I. Rudnicky

The model is in standard ARPA format, designed by Doug Paul while he was at MITRE.

The code that was used to produce this language model is available in Open Source.
Please visit http://www.speech.cs.cmu.edu/tools/ for more information

The (fixed) discount mass is 0.5. The backoffs are computed using the ratio method.
This model based on a corpus of 7 sentences and 12 words

\data\
ngram 1=12
ngram 2=17
ngram 3=11

\1-grams:
-0.8539 </s> -0.3010
-0.8539 <s> -0.2355
-1.6990 dead -0.2355
-1.3979 down -0.2355
-1.6990 jump -0.2355
-1.6990 lay -0.2833
-1.6990 play -0.2923
-1.6990 run -0.2355
-1.6990 sit -0.2833
-1.6990 stand -0.2923
-1.6990 up -0.2355
-1.6990 walk -0.2355

\2-grams:
-1.1461 <s> jump 0.0000
-1.1461 <s> lay 0.0000
-1.1461 <s> play 0.0000
-1.1461 <s> run 0.0000
-1.1461 <s> sit 0.0000
-1.1461 <s> stand 0.0000
-1.1461 <s> walk 0.0000
-0.3010 dead </s> -0.3010
-0.3010 down </s> -0.3010
-0.3010 jump </s> -0.3010
-0.3010 lay down 0.0000
-0.3010 play dead 0.0000
-0.3010 run </s> -0.3010
-0.3010 sit down 0.0000
-0.3010 stand up 0.0000
-0.3010 up </s> -0.3010
-0.3010 walk </s> -0.3010

\3-grams:
-0.3010 <s> jump </s>
-0.3010 <s> lay down
-0.3010 <s> play dead
-0.3010 <s> run </s>
-0.3010 <s> sit down
-0.3010 <s> stand up
-0.3010 <s> walk </s>
-0.3010 lay down </s>
-0.3010 play dead </s>
-0.3010 sit down </s>
-0.3010 stand up </s>

\end\
